Language model created by QuickLM on Sun Mar 30 04:50:28 EDT 2014
Copyright (c) 1996-2010 Carnegie Mellon University and Alexander I. Rudnicky

The model is in standard ARPA format, designed by Doug Paul while he was at MITRE.

The code that was used to produce this language model is available in Open Source.
Please visit http://www.speech.cs.cmu.edu/tools/ for more information

The (fixed) discount mass is 0.5. The backoffs are computed using the ratio method.
This model based on a corpus of 20 sentences and 22 words

\data\
ngram 1=22
ngram 2=40
ngram 3=20

\1-grams:
-0.7782 </s> -0.3010
-0.7782 <s> -0.2218
-2.0792 ABOVE -0.2218
-2.0792 ADD -0.2218
-2.0792 BACK -0.2218
-2.0792 BELOW -0.2218
-2.0792 CAMERA -0.2218
-2.0792 CENTER -0.2218
-2.0792 EXIT -0.2218
-2.0792 FRONT -0.2218
-2.0792 LEFT -0.2218
-2.0792 OBJECT -0.2218
-2.0792 OVER -0.2218
-2.0792 POTTERY -0.2218
-2.0792 RENDER -0.2218
-2.0792 RESET -0.2218
-2.0792 RIGHT -0.2218
-2.0792 SCULPT -0.2218
-2.0792 SLEEP -0.2218
-2.0792 SUBSTRACT -0.2218
-2.0792 UNDER -0.2218
-2.0792 WAKE -0.2218

\2-grams:
-1.6021 <s> ABOVE 0.0000
-1.6021 <s> ADD 0.0000
-1.6021 <s> BACK 0.0000
-1.6021 <s> BELOW 0.0000
-1.6021 <s> CAMERA 0.0000
-1.6021 <s> CENTER 0.0000
-1.6021 <s> EXIT 0.0000
-1.6021 <s> FRONT 0.0000
-1.6021 <s> LEFT 0.0000
-1.6021 <s> OBJECT 0.0000
-1.6021 <s> OVER 0.0000
-1.6021 <s> POTTERY 0.0000
-1.6021 <s> RENDER 0.0000
-1.6021 <s> RESET 0.0000
-1.6021 <s> RIGHT 0.0000
-1.6021 <s> SCULPT 0.0000
-1.6021 <s> SLEEP 0.0000
-1.6021 <s> SUBSTRACT 0.0000
-1.6021 <s> UNDER 0.0000
-1.6021 <s> WAKE 0.0000
-0.3010 ABOVE </s> -0.3010
-0.3010 ADD </s> -0.3010
-0.3010 BACK </s> -0.3010
-0.3010 BELOW </s> -0.3010
-0.3010 CAMERA </s> -0.3010
-0.3010 CENTER </s> -0.3010
-0.3010 EXIT </s> -0.3010
-0.3010 FRONT </s> -0.3010
-0.3010 LEFT </s> -0.3010
-0.3010 OBJECT </s> -0.3010
-0.3010 OVER </s> -0.3010
-0.3010 POTTERY </s> -0.3010
-0.3010 RENDER </s> -0.3010
-0.3010 RESET </s> -0.3010
-0.3010 RIGHT </s> -0.3010
-0.3010 SCULPT </s> -0.3010
-0.3010 SLEEP </s> -0.3010
-0.3010 SUBSTRACT </s> -0.3010
-0.3010 UNDER </s> -0.3010
-0.3010 WAKE </s> -0.3010

\3-grams:
-0.3010 <s> ABOVE </s>
-0.3010 <s> ADD </s>
-0.3010 <s> BACK </s>
-0.3010 <s> BELOW </s>
-0.3010 <s> CAMERA </s>
-0.3010 <s> CENTER </s>
-0.3010 <s> EXIT </s>
-0.3010 <s> FRONT </s>
-0.3010 <s> LEFT </s>
-0.3010 <s> OBJECT </s>
-0.3010 <s> OVER </s>
-0.3010 <s> POTTERY </s>
-0.3010 <s> RENDER </s>
-0.3010 <s> RESET </s>
-0.3010 <s> RIGHT </s>
-0.3010 <s> SCULPT </s>
-0.3010 <s> SLEEP </s>
-0.3010 <s> SUBSTRACT </s>
-0.3010 <s> UNDER </s>
-0.3010 <s> WAKE </s>

\end\
