Language model created by QuickLM on Sun Mar 30 03:47:07 EDT 2014
Copyright (c) 1996-2010 Carnegie Mellon University and Alexander I. Rudnicky

The model is in standard ARPA format, designed by Doug Paul while he was at MITRE.

The code that was used to produce this language model is available in Open Source.
Please visit http://www.speech.cs.cmu.edu/tools/ for more information

The (fixed) discount mass is 0.5. The backoffs are computed using the ratio method.
This model based on a corpus of 18 sentences and 20 words

\data\
ngram 1=20
ngram 2=36
ngram 3=18

\1-grams:
-0.7782 </s> -0.3010
-0.7782 <s> -0.2218
-2.0334 ABOVE -0.2218
-2.0334 BACK -0.2218
-2.0334 BELOW -0.2218
-2.0334 CAMERA -0.2218
-2.0334 CENTER -0.2218
-2.0334 EXIT -0.2218
-2.0334 FRONT -0.2218
-2.0334 LEFT -0.2218
-2.0334 OBJECT -0.2218
-2.0334 OVER -0.2218
-2.0334 POTTERY -0.2218
-2.0334 RENDER -0.2218
-2.0334 RESET -0.2218
-2.0334 RIGHT -0.2218
-2.0334 SCULPT -0.2218
-2.0334 SLEEP -0.2218
-2.0334 UNDER -0.2218
-2.0334 WAKE -0.2218

\2-grams:
-1.5563 <s> ABOVE 0.0000
-1.5563 <s> BACK 0.0000
-1.5563 <s> BELOW 0.0000
-1.5563 <s> CAMERA 0.0000
-1.5563 <s> CENTER 0.0000
-1.5563 <s> EXIT 0.0000
-1.5563 <s> FRONT 0.0000
-1.5563 <s> LEFT 0.0000
-1.5563 <s> OBJECT 0.0000
-1.5563 <s> OVER 0.0000
-1.5563 <s> POTTERY 0.0000
-1.5563 <s> RENDER 0.0000
-1.5563 <s> RESET 0.0000
-1.5563 <s> RIGHT 0.0000
-1.5563 <s> SCULPT 0.0000
-1.5563 <s> SLEEP 0.0000
-1.5563 <s> UNDER 0.0000
-1.5563 <s> WAKE 0.0000
-0.3010 ABOVE </s> -0.3010
-0.3010 BACK </s> -0.3010
-0.3010 BELOW </s> -0.3010
-0.3010 CAMERA </s> -0.3010
-0.3010 CENTER </s> -0.3010
-0.3010 EXIT </s> -0.3010
-0.3010 FRONT </s> -0.3010
-0.3010 LEFT </s> -0.3010
-0.3010 OBJECT </s> -0.3010
-0.3010 OVER </s> -0.3010
-0.3010 POTTERY </s> -0.3010
-0.3010 RENDER </s> -0.3010
-0.3010 RESET </s> -0.3010
-0.3010 RIGHT </s> -0.3010
-0.3010 SCULPT </s> -0.3010
-0.3010 SLEEP </s> -0.3010
-0.3010 UNDER </s> -0.3010
-0.3010 WAKE </s> -0.3010

\3-grams:
-0.3010 <s> ABOVE </s>
-0.3010 <s> BACK </s>
-0.3010 <s> BELOW </s>
-0.3010 <s> CAMERA </s>
-0.3010 <s> CENTER </s>
-0.3010 <s> EXIT </s>
-0.3010 <s> FRONT </s>
-0.3010 <s> LEFT </s>
-0.3010 <s> OBJECT </s>
-0.3010 <s> OVER </s>
-0.3010 <s> POTTERY </s>
-0.3010 <s> RENDER </s>
-0.3010 <s> RESET </s>
-0.3010 <s> RIGHT </s>
-0.3010 <s> SCULPT </s>
-0.3010 <s> SLEEP </s>
-0.3010 <s> UNDER </s>
-0.3010 <s> WAKE </s>

\end\
